<?xml version="1.0"?>
<opencv_storage>
<cascade>
  <stageType>BOOST</stageType>
  <featureType>LBP</featureType>
  <height>20</height>
  <width>20</width>
  <stageParams>
    <boostType>GAB</boostType>
    <minHitRate>9.9500000476837158e-001</minHitRate>
    <maxFalseAlarm>3.0000001192092896e-001</maxFalseAlarm>
    <weightTrimRate>9.4999999999999996e-001</weightTrimRate>
    <maxDepth>1</maxDepth>
    <maxWeakCount>100</maxWeakCount></stageParams>
  <featureParams>
    <maxCatCount>256</maxCatCount>
    <featSize>1</featSize></featureParams>
  <stageNum>10</stageNum>
  <stages>
    <!-- stage 0 -->
    <_>
      <maxWeakCount>5</maxWeakCount>
      <stageThreshold>-1.3324356079101563e+000</stageThreshold>
      <weakClassifiers>
        <_>
          <internalNodes>
            0 -1 66 -753860612 -179242532 -9043969 -10633217 -68027408
            -1110167376 -262145 -44814320</internalNodes>
          <leafValues>
            -8.4859788417816162e-001 5.6146568059921265e-001</leafValues></_>
        <_>
          <internalNodes>
            0 -1 16 408944992 -67437712 -75497485 -288271 -2001683727
            -1157961487 -1073742857 -1141690127</internalNodes>
          <leafValues>
            -7.4743920564651489e-001 5.3600513935089111e-001</leafValues></_>
        <_>
          <internalNodes>
            0 -1 74 -1073954828 -147971 2147352573 -131075 -212995
            -131587 -1090715907 -1393556448</internalNodes>
          <leafValues>
            -6.7761975526809692e-001 5.2684926986694336e-001</leafValues></_>
        <_>
          <internalNodes>
            0 -1 36 1072971775 2147450871 -65538 2146861054 1073166207
            2147450741 1836146020 2137269856</internalNodes>
          <leafValues>
            -7.4184703826904297e-001 4.5383584499359131e-001</leafValues></_>
        <_>
          <internalNodes>
            0 -1 99 3430901 743452977 -604012547 -1074413739 -1915814401
            -1073938435 -1342259713 -1462234060</internalNodes>
          <leafValues>
            -6.3079440593719482e-001 4.8738539218902588e-001</leafValues></_></weakClassifiers></_>
    <!-- stage 1 -->
    <_>
      <maxWeakCount>8</maxWeakCount>
      <stageThreshold>-1.6058154106140137e+000</stageThreshold>
      <weakClassifiers>
        <_>
          <internalNodes>
            0 -1 147 -1 -1358954497 -16777217 -1392508929 -1 -285212673
            -11 -285212675</internalNodes>
          <leafValues>
            -6.9383054971694946e-001 5.4683095216751099e-001</leafValues></_>
        <_>
          <internalNodes>
            0 -1 32 -1 -1 -2 -17104898 -557241 -8945793 -557194 -8947850</internalNodes>
          <leafValues>
            -6.3635629415512085e-001 5.3144448995590210e-001</leafValues></_>
        <_>
          <internalNodes>
            0 -1 13 -286355729 -1 -268488705 -1 1279657551 -20480001
            1157578830 -192937985</internalNodes>
          <leafValues>
            -5.6203889846801758e-001 5.4335618019104004e-001</leafValues></_>
        <_>
          <internalNodes>
            0 -1 124 -5001472 -21825616 -2490380 -1397686376 -2097156 -3
            -285344532 -117506066</internalNodes>
          <leafValues>
            -6.7454183101654053e-001 4.1722100973129272e-001</leafValues></_>
        <_>
          <internalNodes>
            0 -1 84 -387 -33 -1199653121 -320864257 -721516532
            -564396979 -1205067751 -1464926625</internalNodes>
          <leafValues>
            -4.8011445999145508e-001 5.0389313697814941e-001</leafValues></_>
        <_>
          <internalNodes>
            0 -1 34 2147450751 -1 -16777473 -1091371014 -32913 -8683689
            -129 -8487041</internalNodes>
          <leafValues>
            -4.3612077832221985e-001 5.5666786432266235e-001</leafValues></_>
        <_>
          <internalNodes>
            0 -1 110 -4390916 -37978116 -1 -33751044 -285933827 -589825
            -65539 -1073988368</internalNodes>
          <leafValues>
            -5.9926390647888184e-001 3.8943722844123840e-001</leafValues></_>
        <_>
          <internalNodes>
            0 -1 108 -268458235 -1472463041 -1426067931 -1406337285 -203
            -12583233 -220 -390070273</internalNodes>
          <leafValues>
            -5.1143467426300049e-001 3.9189988374710083e-001</leafValues></_></weakClassifiers></_>
    <!-- stage 2 -->
    <_>
      <maxWeakCount>9</maxWeakCount>
      <stageThreshold>-1.9573240280151367e+000</stageThreshold>
      <weakClassifiers>
        <_>
          <internalNodes>
            0 -1 129 -1 -1342177281 -1 -1342177281 -1 -1342177281 -20484
            -1879048193</internalNodes>
          <leafValues>
            -6.4004093408584595e-001 4.5680513978004456e-001</leafValues></_>
        <_>
          <internalNodes>
            0 -1 64 323353436 1329984497 -287318017 -808583169 536870911
            -816448651 1073610751 -814219265</internalNodes>
          <leafValues>
            -6.0803616046905518e-001 4.4230684638023376e-001</leafValues></_>
        <_>
          <internalNodes>
            0 -1 27 -32897 -285212673 -16777473 -285278209 -46592
            1853849463 -17335436 -1</internalNodes>
          <leafValues>
            -4.7326400876045227e-001 5.6607556343078613e-001</leafValues></_>
        <_>
          <internalNodes>
            0 -1 52 -32841 -234881537 -16449 -1 -17154 -1191199489
            1054550698 16232191</internalNodes>
          <leafValues>
            -5.4357343912124634e-001 4.2881035804748535e-001</leafValues></_>
        <_>
          <internalNodes>
            0 -1 144 -393 -285224961 -50397340 -385941505 -33722875
            -16786689 -34144448 -386662409</internalNodes>
          <leafValues>
            -4.3407493829727173e-001 5.3176063299179077e-001</leafValues></_>
        <_>
          <internalNodes>
            0 -1 25 -87097490 981368663 -67174530 980615026 -41943217
            1566474107 -65678 2134081395</internalNodes>
          <leafValues>
            -6.3969540596008301e-001 2.8058531880378723e-001</leafValues></_>
        <_>
          <internalNodes>
            0 -1 114 -1073954820 -4403203 -1 -229380 -1078001667
            -8454657 -1107492868 208936052</internalNodes>
          <leafValues>
            -7.1288162469863892e-001 2.5198251008987427e-001</leafValues></_>
        <_>
          <internalNodes>
            0 -1 127 -273699040 -1410400342 -339744780 -319881730 -8443
            -1572913 -316 -319815713</internalNodes>
          <leafValues>
            -5.8096319437026978e-001 3.1369292736053467e-001</leafValues></_>
        <_>
          <internalNodes>
            0 -1 75 -235 -1073742345 -1398801155 -1073872993 -75546748
            -1074806963 -52515155 -1393557505</internalNodes>
          <leafValues>
            -3.5888826847076416e-001 5.2306175231933594e-001</leafValues></_></weakClassifiers></_>
    <!-- stage 3 -->
    <_>
      <maxWeakCount>12</maxWeakCount>
      <stageThreshold>-1.8375926017761230e+000</stageThreshold>
      <weakClassifiers>
        <_>
          <internalNodes>
            0 -1 19 -17895710 -67126273 -354435073 -67434244 -587202830
            -67391826 -25183233 -67108897</internalNodes>
          <leafValues>
            -6.6472274065017700e-001 2.9082357883453369e-001</leafValues></_>
        <_>
          <internalNodes>
            0 -1 128 -4 -262190 -134218372 -33686276 -69206274
            -1883242497 -855703556 83883262</internalNodes>
          <leafValues>
            -6.4388668537139893e-001 3.4338131546974182e-001</leafValues></_>
        <_>
          <internalNodes>
            0 -1 51 -33694468 -2794155 -1393435939 -36831779 -33686292
            -1361379378 -322114324 -2131759217</internalNodes>
          <leafValues>
            -5.1274293661117554e-001 4.5628070831298828e-001</leafValues></_>
        <_>
          <internalNodes>
            0 -1 88 -51052552 -1196372516 -16385 -71696387 -539959330
            -343213176 -268828706 -1088422258</internalNodes>
          <leafValues>
            -4.2217335104942322e-001 4.6337941288948059e-001</leafValues></_>
        <_>
          <internalNodes>
            0 -1 141 -134266338 -539013794 -801049746 -801051042
            -1160118272 -336178672 -1207764278 -230495525</internalNodes>
          <leafValues>
            -4.1217294335365295e-001 4.4035676121711731e-001</leafValues></_>
        <_>
          <internalNodes>
            0 -1 48 -44833 -25165961 -92537869 -16842753 -26279414
            -75538569 -285748226 -8650945</internalNodes>
          <leafValues>
            -3.8600778579711914e-001 4.7480270266532898e-001</leafValues></_>
        <_>
          <internalNodes>
            0 -1 72 2123873982 1073732991 1073086461 -1073894403 -1
            1023145972 -4456522 83146231</internalNodes>
          <leafValues>
            -4.8521465063095093e-001 3.3951419591903687e-001</leafValues></_>
        <_>
          <internalNodes>
            0 -1 14 -355553532 -18506 -1441976708 460846822 1080164994
            -774452457 1216094431 1893191391</internalNodes>
          <leafValues>
            -5.7079160213470459e-001 2.6837950944900513e-001</leafValues></_>
        <_>
          <internalNodes>
            0 -1 39 -34619254 602923530 1649123840 51061538 -883965952
            54858240 1103523904 1398273879</internalNodes>
          <leafValues>
            -6.0172498226165771e-001 2.4881784617900848e-001</leafValues></_>
        <_>
          <internalNodes>
            0 -1 131 -1465471200 -1901398128 -146801924 -68296 -34624585
            -356585507 -206850160 -1716529768</internalNodes>
          <leafValues>
            -4.8798260092735291e-001 2.9128763079643250e-001</leafValues></_>
        <_>
          <internalNodes>
            0 -1 148 -1347735937 -1904267657 -1090619649 788529135
            -5292097 -1358996513 -100749327 -1971597475</internalNodes>
          <leafValues>
            -4.5628106594085693e-001 3.1076267361640930e-001</leafValues></_>
        <_>
          <internalNodes>
            0 -1 29 -33764100 -67510275 -1159659521 712126450 1843722748
            -667907 -47153804 1987278706</internalNodes>
          <leafValues>
            -5.7073134183883667e-001 2.4360226094722748e-001</leafValues></_></weakClassifiers></_>
    <!-- stage 4 -->
    <_>
      <maxWeakCount>14</maxWeakCount>
      <stageThreshold>-1.6608623266220093e+000</stageThreshold>
      <weakClassifiers>
        <_>
          <internalNodes>
            0 -1 12 727510014 -98305 -805376001 -268441857 257421303
            1333264247 -1025 -813694977</internalNodes>
          <leafValues>
            -7.0967161655426025e-001 1.8340730667114258e-001</leafValues></_>
        <_>
          <internalNodes>
            0 -1 93 -168493060 -116065024 -4 -5111811 -4098 -2228856
            -270532866 -1088557944</internalNodes>
          <leafValues>
            -5.6438541412353516e-001 3.2904687523841858e-001</leafValues></_>
        <_>
          <internalNodes>
            0 -1 115 -1073765059 759152437 -268571203 -1107366148 -1
            -1342177858 -4177 234881006</internalNodes>
          <leafValues>
            -4.9825176596641541e-001 3.7221470475196838e-001</leafValues></_>
        <_>
          <internalNodes>
            0 -1 2 -5259265 -7368977 -1349579009 -1364259635 -1626357777
            -20476273 -1143010213 -188268465</internalNodes>
          <leafValues>
            -3.8895779848098755e-001 4.2585191130638123e-001</leafValues></_>
        <_>
          <internalNodes>
            0 -1 82 405814612 -196611 2147155967 -131587 1072742399
            -663812 -1075920897 -1078186792</internalNodes>
          <leafValues>
            -3.9012265205383301e-001 3.8946455717086792e-001</leafValues></_>
        <_>
          <internalNodes>
            0 -1 145 -67113225 -457184337 2061426645 -1058542339
            -151003567 -184593483 -69018816 -522715149</internalNodes>
          <leafValues>
            -4.0961587429046631e-001 3.7312752008438110e-001</leafValues></_>
        <_>
          <internalNodes>
            0 -1 20 -822153217 1281233439 -8498698 2033483639 1752368192
            2085884944 1979594788 2037595259</internalNodes>
          <leafValues>
            -4.7410529851913452e-001 3.1170532107353210e-001</leafValues></_>
        <_>
          <internalNodes>
            0 -1 21 1074589430 282982141 -138412545 962322303
            -1361051657 -589692970 -4609 366309622</internalNodes>
          <leafValues>
            -5.2553349733352661e-001 2.5330355763435364e-001</leafValues></_>
        <_>
          <internalNodes>
            0 -1 79 1026563580 -188483 1055195132 2145221629 -1091715076
            -186372 -1073958914 -1075048964</internalNodes>
          <leafValues>
            -4.1203576326370239e-001 3.3511534333229065e-001</leafValues></_>
        <_>
          <internalNodes>
            0 -1 94 -2052276804 -1782728900 -1073750019 -1111638132
            146430397 -1358967043 805248191 -1883307845</internalNodes>
          <leafValues>
            -3.5285958647727966e-001 3.9273402094841003e-001</leafValues></_>
        <_>
          <internalNodes>
            0 -1 109 -274289750 -1207781112 -235947536 -709119088
            -4199425 -393733 -100815384 -1726875141</internalNodes>
          <leafValues>
            -4.0914338827133179e-001 3.3154368400573730e-001</leafValues></_>
        <_>
          <internalNodes>
            0 -1 45 -118821081 -3220482 -4735617 -1429454230 -2654971
            -559417 -393347 -3715008</internalNodes>
          <leafValues>
            -4.0663683414459229e-001 3.4163782000541687e-001</leafValues></_>
        <_>
          <internalNodes>
            0 -1 46 -352364325 -18987493 -537076353 2050653810
            -690024488 678709780 -1679249730 -9179209</internalNodes>
          <leafValues>
            -3.5152944922447205e-001 3.5831919312477112e-001</leafValues></_>
        <_>
          <internalNodes>
            0 -1 143 -67148254 -402716064 892482749 -1312658749
            -536919004 -276872172 -20716860 -267191297</internalNodes>
          <leafValues>
            -3.9081609249114990e-001 3.1771424412727356e-001</leafValues></_></weakClassifiers></_>
    <!-- stage 5 -->
    <_>
      <maxWeakCount>14</maxWeakCount>
      <stageThreshold>-1.5547753572463989e+000</stageThreshold>
      <weakClassifiers>
        <_>
          <internalNodes>
            0 -1 105 -20545 -167772161 -1077936129 -1464139841 -20545
            -16705 -65 -1128267777</internalNodes>
          <leafValues>
            -6.5882676839828491e-001 3.1898906826972961e-001</leafValues></_>
        <_>
          <internalNodes>
            0 -1 35 2147450879 -1 -2 -16842754 -32945 -32897 -32898
            -1082228874</internalNodes>
          <leafValues>
            -5.6639748811721802e-001 3.6745008826255798e-001</leafValues></_>
        <_>
          <internalNodes>
            0 -1 146 -4097 -855642113 -16781313 -856166401 -5257
            -319823905 -43 -855769091</internalNodes>
          <leafValues>
            -4.5242550969123840e-001 4.2564240097999573e-001</leafValues></_>
        <_>
          <internalNodes>
            0 -1 81 1065156605 -1073741825 2147352575 -131077 -131329
            -21507 2143092735 509346880</internalNodes>
          <leafValues>
            -5.4784381389617920e-001 3.1262814998626709e-001</leafValues></_>
        <_>
          <internalNodes>
            0 -1 3 -1342787649 -268632065 -1362310147 -1343451297
            -1074491393 -269078665 -67350529 -1996746889</internalNodes>
          <leafValues>
            -4.5058354735374451e-001 3.6648496985435486e-001</leafValues></_>
        <_>
          <internalNodes>
            0 -1 98 805191677 1073610749 -1107361795 -1073872900
            1073610751 -1073938947 805126133 754195956</internalNodes>
          <leafValues>
            -5.3583753108978271e-001 2.8535848855972290e-001</leafValues></_>
        <_>
          <internalNodes>
            0 -1 107 -1528433227 -1526858379 -3 -100794883 1577057791
            -131105 -1342177921 -1459831299</internalNodes>
          <leafValues>
            -4.0004977583885193e-001 3.7789314985275269e-001</leafValues></_>
        <_>
          <internalNodes>
            0 -1 76 196099965 -1074466819 -1073741825 -1073741826
            1072906229 266173949 2147450879 1073692395</internalNodes>
          <leafValues>
            -5.1276659965515137e-001 2.7862209081649780e-001</leafValues></_>
        <_>
          <internalNodes>
            0 -1 28 -67150081 -151093249 -822446081 -19759105 -335674838
            1870364535 -838699184 -9175177</internalNodes>
          <leafValues>
            -3.6032208800315857e-001 4.2468813061714172e-001</leafValues></_>
        <_>
          <internalNodes>
            0 -1 9 -336597298 -1343230010 -425465722 -889717014
            -226503098 2004221766 1960177666 2012741607</internalNodes>
          <leafValues>
            -4.6176278591156006e-001 2.8947621583938599e-001</leafValues></_>
        <_>
          <internalNodes>
            0 -1 42 1112076270 -2124873737 -8389634 -35930118
            -1484783659 -1109544971 -2097411 366853110</internalNodes>
          <leafValues>
            -5.1137584447860718e-001 2.6236107945442200e-001</leafValues></_>
        <_>
          <internalNodes>
            0 -1 24 -1073742865 746586111 2063530602 40300514 2136961860
            2002091574 2113764676 1885831030</internalNodes>
          <leafValues>
            -6.0598063468933105e-001 2.1051120758056641e-001</leafValues></_>
        <_>
          <internalNodes>
            0 -1 113 -173231456 -658926031 -1027 -772735051 -1346633731
            -1396785737 -1342373959 -2010633167</internalNodes>
          <leafValues>
            -4.5806109905242920e-001 2.6843526959419250e-001</leafValues></_>
        <_>
          <internalNodes>
            0 -1 5 -17893396 -17057924 2105491372 -2146354 -1073741825
            -1209602435 -29010 31600494</internalNodes>
          <leafValues>
            -5.1293712854385376e-001 2.3452554643154144e-001</leafValues></_></weakClassifiers></_>
    <!-- stage 6 -->
    <_>
      <maxWeakCount>17</maxWeakCount>
      <stageThreshold>-1.5942248106002808e+000</stageThreshold>
      <weakClassifiers>
        <_>
          <internalNodes>
            0 -1 138 -1073774593 -1342177281 -8193 -1375731713 -1
            -1073741825 -16385 -1073741827</internalNodes>
          <leafValues>
            -6.1645227670669556e-001 2.9187527298927307e-001</leafValues></_>
        <_>
          <internalNodes>
            0 -1 117 -20545 -16385 -1073795073 -1 -86081 -131085
            -289767489 -286326849</internalNodes>
          <leafValues>
            -3.8290488719940186e-001 5.0753486156463623e-001</leafValues></_>
        <_>
          <internalNodes>
            0 -1 71 704954303 1867382769 -1094713413 -268435461
            -1082131457 -11141131 1063124876 -61472771</internalNodes>
          <leafValues>
            -4.2729133367538452e-001 3.7163919210433960e-001</leafValues></_>
        <_>
          <internalNodes>
            0 -1 47 -32801 -285212673 -222822657 -83951873 -9473468
            1987540855 -9502977 -589961</internalNodes>
          <leafValues>
            -3.6064645648002625e-001 4.3276256322860718e-001</leafValues></_>
        <_>
          <internalNodes>
            0 -1 112 -1381974604 -33816588 -1073758211 -71581700
            -1967341635 -1 -1342423107 -1124319812</internalNodes>
          <leafValues>
            -4.8180747032165527e-001 3.0106437206268311e-001</leafValues></_>
        <_>
          <internalNodes>
            0 -1 91 536903541 -2063843339 -1073741825 -49219 -32899 -9
            -515 -1364721468</internalNodes>
          <leafValues>
            -4.7077715396881104e-001 2.7785453200340271e-001</leafValues></_>
        <_>
          <internalNodes>
            0 -1 50 1071005695 855179262 -514 1002126078 1001881079
            1995832821 -32780 888501106</internalNodes>
          <leafValues>
            -5.4203742742538452e-001 2.2219988703727722e-001</leafValues></_>
        <_>
          <internalNodes>
            0 -1 67 -14566384 -1122683627 -1732496323 -1111622467
            -1086341776 -43941907 -1195406084 -1399993139</internalNodes>
          <leafValues>
            -3.6726489663124084e-001 3.2743129134178162e-001</leafValues></_>
        <_>
          <internalNodes>
            0 -1 63 -369098217 -67125577 711930623 -1293342108 -96776609
            -136981545 -50368785 -83925181</internalNodes>
          <leafValues>
            -3.7677320837974548e-001 3.1237822771072388e-001</leafValues></_>
        <_>
          <internalNodes>
            0 -1 26 -268435713 -1342177281 -419434242 -134226177
            -537583104 1870624629 -690576 -136839177</internalNodes>
          <leafValues>
            -3.1206846237182617e-001 3.8297694921493530e-001</leafValues></_>
        <_>
          <internalNodes>
            0 -1 135 -269522400 -1112560478 -1372471340 -1444610391
            -5541883 -806154461 -1619686780 -2047344741</internalNodes>
          <leafValues>
            -4.0381711721420288e-001 2.7606624364852905e-001</leafValues></_>
        <_>
          <internalNodes>
            0 -1 120 779501557 939081725 -1107443713 -1073864707
            1073577727 -1107427843 805092351 205270517</internalNodes>
          <leafValues>
            -5.6680130958557129e-001 1.8374368548393250e-001</leafValues></_>
        <_>
          <internalNodes>
            0 -1 10 -17838866 1783623558 -1427183926 -6033678 -145276
            1461142862 -766449968 -212342985</internalNodes>
          <leafValues>
            -3.0633059144020081e-001 3.6794790625572205e-001</leafValues></_>
        <_>
          <internalNodes>
            0 -1 57 425472860 634695667 -286495815 561807323 201265151
            191233911 -1076002835 91750347</internalNodes>
          <leafValues>
            -6.1774492263793945e-001 1.8086311221122742e-001</leafValues></_>
        <_>
          <internalNodes>
            0 -1 87 -1057163870 -54608130 -75511825 -805327234
            -1946096388 -16881153 -151590 146015628</internalNodes>
          <leafValues>
            -5.9499871730804443e-001 1.7216570675373077e-001</leafValues></_>
        <_>
          <internalNodes>
            0 -1 95 -272695300 -302120963 -16385 -20481 -554631681
            -327681 -18485313 -1342226697</internalNodes>
          <leafValues>
            -2.5437483191490173e-001 4.0263202786445618e-001</leafValues></_>
        <_>
          <internalNodes>
            0 -1 142 -13813 -671675346 1646186222 -1340014593 -2160640
            -994161657 -227345669 -264045569</internalNodes>
          <leafValues>
            -3.2770183682441711e-001 3.3412382006645203e-001</leafValues></_></weakClassifiers></_>
    <!-- stage 7 -->
    <_>
      <maxWeakCount>21</maxWeakCount>
      <stageThreshold>-1.5847711563110352e+000</stageThreshold>
      <weakClassifiers>
        <_>
          <internalNodes>
            0 -1 60 -212475905 -136478722 -545390721 -2113681 -265
            -16943116 -268435465 -77628425</internalNodes>
          <leafValues>
            -5.5265325307846069e-001 3.2242128252983093e-001</leafValues></_>
        <_>
          <internalNodes>
            0 -1 148 -1090556161 -1358987265 -285216769 -1358954497
            -49217 -1361051809 -1074122753 -268435457</internalNodes>
          <leafValues>
            -3.8520407676696777e-001 4.0749171376228333e-001</leafValues></_>
        <_>
          <internalNodes>
            0 -1 106 -302018648 -52577345 -1077936325 -1350517875
            -1409304929 1878942966 -36929 -1381109825</internalNodes>
          <leafValues>
            -3.9599898457527161e-001 3.1254473328590393e-001</leafValues></_>
        <_>
          <internalNodes>
            0 -1 0 -224198674 -1291586589 -1074008131 -136073236
            -170524689 -277364737 -67964945 2004348999</internalNodes>
          <leafValues>
            -3.3618035912513733e-001 3.6910504102706909e-001</leafValues></_>
        <_>
          <internalNodes>
            0 -1 38 -353392126 -3073 -1101022413 -1106579780 -1996560144
            -67703858 8040022 -1171080482</internalNodes>
          <leafValues>
            -4.5189645886421204e-001 2.4439360201358795e-001</leafValues></_>
        <_>
          <internalNodes>
            0 -1 103 -1482113092 -2593 -1078214657 -1073752390
            -117443073 -16786177 -17090593 -1077994305</internalNodes>
          <leafValues>
            -2.5818586349487305e-001 4.1711369156837463e-001</leafValues></_>
        <_>
          <internalNodes>
            0 -1 62 -536916257 -541099137 -1124352161 -114689 -2139553
            -32899 -8421377 -114690</internalNodes>
          <leafValues>
            -2.2780112922191620e-001 4.2805066704750061e-001</leafValues></_>
        <_>
          <internalNodes>
            0 -1 125 -67371136 -31220806 -705306744 -545947656
            -544211234 -2013275201 -805439576 -1996488970</internalNodes>
          <leafValues>
            -4.4045814871788025e-001 2.5233322381973267e-001</leafValues></_>
        <_>
          <internalNodes>
            0 -1 68 -3107 -1107574817 1040154623 -16393 -1073761092
            -2396328 -1125307347 -1472221281</internalNodes>
          <leafValues>
            -3.4179419279098511e-001 3.2049986720085144e-001</leafValues></_>
        <_>
          <internalNodes>
            0 -1 43 -419446130 651165391 -1561036662 1657725166
            -990952306 392124167 -487067409 -226756609</internalNodes>
          <leafValues>
            -3.2774507999420166e-001 3.1859830021858215e-001</leafValues></_>
        <_>
          <internalNodes>
            0 -1 90 -257917008 -1271538371 -1082810436 -1112408080
            -68441174 -1103102197 -8536386 -2000699537</internalNodes>
          <leafValues>
            -3.5361006855964661e-001 2.7703082561492920e-001</leafValues></_>
        <_>
          <internalNodes>
            0 -1 69 138415604 267149237 -3629059 -1073889331 -1075183620
            -1073889569 -1611862276 267394320</internalNodes>
          <leafValues>
            -4.9634295701980591e-001 2.0328477025032043e-001</leafValues></_>
        <_>
          <internalNodes>
            0 -1 44 517327586 1358429183 -8388737 414833582 -1879048205
            -539107332 -44040203 1862664150</internalNodes>
          <leafValues>
            -4.3436431884765625e-001 2.2837270796298981e-001</leafValues></_>
        <_>
          <internalNodes>
            0 -1 7 2131668895 -1079023625 -138649633 -1360011782
            -1884419201 -1385202275 -277393537 -1060746113</internalNodes>
          <leafValues>
            -3.8503867387771606e-001 2.5994729995727539e-001</leafValues></_>
        <_>
          <internalNodes>
            0 -1 100 -306189039 -1338708169 -1367478403 -1107822697
            -25641 -1094946893 -16909428 -1459767109</internalNodes>
          <leafValues>
            -3.0604568123817444e-001 3.1720441579818726e-001</leafValues></_>
        <_>
          <internalNodes>
            0 -1 30 -67372289 -285739013 2062010231 -29425697 -77110698
            2104981886 -92901070 1282932599</internalNodes>
          <leafValues>
            -3.9863583445549011e-001 2.4311560392379761e-001</leafValues></_>
        <_>
          <internalNodes>
            0 -1 97 785661949 -1074234124 -1074675717 -1073742596
            2130247677 -1090715651 805060597 494214772</internalNodes>
          <leafValues>
            -5.6775432825088501e-001 1.5731154382228851e-001</leafValues></_>
        <_>
          <internalNodes>
            0 -1 58 -536876414 574091010 133857824 1677191978 -742472190
            1346586182 -186685753 1936186863</internalNodes>
          <leafValues>
            -3.7100672721862793e-001 2.3565822839736938e-001</leafValues></_>
        <_>
          <internalNodes>
            0 -1 133 -2401270 2080333391 -626331682 1516404223
            1962543168 -17868706 1509972042 1920130767</internalNodes>
          <leafValues>
            -4.2847755551338196e-001 1.8850013613700867e-001</leafValues></_>
        <_>
          <internalNodes>
            0 -1 126 -1381322844 -1997740548 -1073758219 -86032 -2097729
            -269582337 -1110457211 -1392800720</internalNodes>
          <leafValues>
            -3.2829603552818298e-001 2.6427954435348511e-001</leafValues></_>
        <_>
          <internalNodes>
            0 -1 1 -269488402 2045767422 -1906398500 -84308236
            1423795454 -799270738 -2064024467 1144345974</internalNodes>
          <leafValues>
            -3.4128266572952271e-001 2.3792806267738342e-001</leafValues></_></weakClassifiers></_>
    <!-- stage 8 -->
    <_>
      <maxWeakCount>25</maxWeakCount>
      <stageThreshold>-1.5643669366836548e+000</stageThreshold>
      <weakClassifiers>
        <_>
          <internalNodes>
            0 -1 40 -10485761 -2097161 -1 -1 -1 -524427 -1 -1</internalNodes>
          <leafValues>
            -4.4773140549659729e-001 6.6908419132232666e-001</leafValues></_>
        <_>
          <internalNodes>
            0 -1 121 -1073758337 1073708413 -1073795073 -1644237058
            -16385 -1375732228 -20481 -1912672274</internalNodes>
          <leafValues>
            -3.2825052738189697e-001 3.7760147452354431e-001</leafValues></_>
        <_>
          <internalNodes>
            0 -1 140 -67155382 -2143649 1343814366 1933733727 -204324792
            -2144192 2051078878 -230491429</internalNodes>
          <leafValues>
            -3.5412001609802246e-001 2.8597429394721985e-001</leafValues></_>
        <_>
          <internalNodes>
            0 -1 53 -65537 -101382 -591521793 -53280 64879615 -16385
            -83887105 586048002</internalNodes>
          <leafValues>
            -3.4079563617706299e-001 2.9659405350685120e-001</leafValues></_>
        <_>
          <internalNodes>
            0 -1 130 -1347514592 -1365066316 -4743500 -1074011652
            -1081385 -1930101771 -2054602620 -1912612642</internalNodes>
          <leafValues>
            -3.8957107067108154e-001 2.4634522199630737e-001</leafValues></_>
        <_>
          <internalNodes>
            0 -1 18 -827398482 -1048609 -1361052033 -1213732065
            1257719893 -168532523 2025811055 -254292897</internalNodes>
          <leafValues>
            -4.1534304618835449e-001 2.2247868776321411e-001</leafValues></_>
        <_>
          <internalNodes>
            0 -1 147 -2625809 -2063601667 -353376051 -2001834034
            -18919489 -318804193 -83923724 -864550939</internalNodes>
          <leafValues>
            -3.9794141054153442e-001 2.6174718141555786e-001</leafValues></_>
        <_>
          <internalNodes>
            0 -1 77 -149570 -268636164 1442693086 -1409437777 -84885574
            -17173256 -67650822 1023359222</internalNodes>
          <leafValues>
            -3.6431908607482910e-001 2.4434071779251099e-001</leafValues></_>
        <_>
          <internalNodes>
            0 -1 46 -25280005 2071614739 1866365555 1534230331
            -279479349 1148680020 -858264577 -143130753</internalNodes>
          <leafValues>
            -2.6928758621215820e-001 3.2998251914978027e-001</leafValues></_>
        <_>
          <internalNodes>
            0 -1 89 -1792753872 -4272195 2147205055 -1107321416 77616637
            -285751297 1308045567 -1430323141</internalNodes>
          <leafValues>
            -2.7727618813514709e-001 3.1420359015464783e-001</leafValues></_>
        <_>
          <internalNodes>
            0 -1 101 -302013647 -445271375 -805317287 -33556993
            -134878243 -156893705 -442399488 -1459668737</internalNodes>
          <leafValues>
            -2.7953353524208069e-001 3.2302442193031311e-001</leafValues></_>
        <_>
          <internalNodes>
            0 -1 54 2079666029 -1074794501 801950654 -1459819522
            1056770693 -1832931465 -1352724717 -923950558</internalNodes>
          <leafValues>
            -3.1399667263031006e-001 2.7109420299530029e-001</leafValues></_>
        <_>
          <internalNodes>
            0 -1 49 -20250657 1945861119 -24051714 -1141383233
            2138537919 -832641 -277381324 995178327</internalNodes>
          <leafValues>
            -3.4835729002952576e-001 2.3347160220146179e-001</leafValues></_>
        <_>
          <internalNodes>
            0 -1 22 -7026 804255663 -2097681874 552009342 1180124228
            1735818772 -423369468 1954020223</internalNodes>
          <leafValues>
            -4.5834499597549438e-001 1.8578194081783295e-001</leafValues></_>
        <_>
          <internalNodes>
            0 -1 85 -2113611 -50989057 1070937599 -1644298753 1056943251
            -1610667995 977215259 -1371538565</internalNodes>
          <leafValues>
            -3.2292819023132324e-001 2.7583861351013184e-001</leafValues></_>
        <_>
          <internalNodes>
            0 -1 139 -159426466 -69247137 -663028017 1918009119
            1927956560 -142715809 1511148104 1378017147</internalNodes>
          <leafValues>
            -4.3432080745697021e-001 1.9611145555973053e-001</leafValues></_>
        <_>
          <internalNodes>
            0 -1 33 -260370689 2080339799 1993821915 2086072287 -1753534
            2004844383 -235507866 1180069463</internalNodes>
          <leafValues>
            -4.3952572345733643e-001 1.6563448309898376e-001</leafValues></_>
        <_>
          <internalNodes>
            0 -1 136 -68157696 -676987016 -45777168 -134217730 -263193
            -1359219089 -50331747 -453247493</internalNodes>
          <leafValues>
            -2.3490169644355774e-001 3.3452171087265015e-001</leafValues></_>
        <_>
          <internalNodes>
            0 -1 59 -85004562 1906900654 -433839584 301989702 -17940410
            1086615108 -259007284 -234881541</internalNodes>
          <leafValues>
            -2.5126704573631287e-001 3.1924629211425781e-001</leafValues></_>
        <_>
          <internalNodes>
            0 -1 116 779880957 897334653 -3 -1090773507 1054801407
            905838591 653557237 208956277</internalNodes>
          <leafValues>
            -6.3489079475402832e-001 1.3555915653705597e-001</leafValues></_>
        <_>
          <internalNodes>
            0 -1 78 -319394449 -67180550 -272814101 -571609362
            -889922307 -809089539 1953787135 -268472089</internalNodes>
          <leafValues>
            -2.0370957255363464e-001 4.0803536772727966e-001</leafValues></_>
        <_>
          <internalNodes>
            0 -1 17 -830554470 -835048399 -822455329 1322954494
            1144278754 -42765545 1484316398 2016437854</internalNodes>
          <leafValues>
            -4.6900483965873718e-001 1.6668146848678589e-001</leafValues></_>
        <_>
          <internalNodes>
            0 -1 102 -1959795292 -1178862188 -334337 -1146355729
            1604275135 -17048647 -940637540 -1690610162</internalNodes>
          <leafValues>
            -2.7564027905464172e-001 2.8103163838386536e-001</leafValues></_>
        <_>
          <internalNodes>
            0 -1 92 443571572 536145397 -200739 -1896009868 1068072829
            -34049 -1363542277 246685008</internalNodes>
          <leafValues>
            -5.3109550476074219e-001 1.5002068877220154e-001</leafValues></_>
        <_>
          <internalNodes>
            0 -1 118 -570437892 1069521570 -965289234 818343599
            -276837876 -79180280 -117654364 -94372245</internalNodes>
          <leafValues>
            -2.5991338491439819e-001 3.0099257826805115e-001</leafValues></_></weakClassifiers></_>
    <!-- stage 9 -->
    <_>
      <maxWeakCount>29</maxWeakCount>
      <stageThreshold>-1.6215487718582153e+000</stageThreshold>
      <weakClassifiers>
        <_>
          <internalNodes>
            0 -1 55 2002779135 -2097171 -16810049 -36865 -270548993
            -656459 -148481 -277348353</internalNodes>
          <leafValues>
            -5.2519625425338745e-001 2.7004092931747437e-001</leafValues></_>
        <_>
          <internalNodes>
            0 -1 6 -526188546 -220006406 -285279237 -218956038
            -211437569 -168296457 -203163649 -252184857</internalNodes>
          <leafValues>
            -3.4666976332664490e-001 3.1830698251724243e-001</leafValues></_>
        <_>
          <internalNodes>
            0 -1 129 -8405185 -1484804225 -4099 -33558530 -257
            -1107296257 -20546 -1879052290</internalNodes>
          <leafValues>
            -2.8421646356582642e-001 3.5665503144264221e-001</leafValues></_>
        <_>
          <internalNodes>
            0 -1 15 -294998238 -810813058 -92360977 -1141647362
            1074855798 -613363838 7387903 993263583</internalNodes>
          <leafValues>
            -5.6800866127014160e-001 1.6936215758323669e-001</leafValues></_>
        <_>
          <internalNodes>
            0 -1 119 -855790060 -860306387 -1364394057 -1475807554
            -33640785 -721510085 -9965653 -273942593</internalNodes>
          <leafValues>
            -3.5879004001617432e-001 2.4996826052665710e-001</leafValues></_>
        <_>
          <internalNodes>
            0 -1 144 -4509 -436219921 -254611723 -925907201 -118888862
            -352363814 -86966464 -520618017</internalNodes>
          <leafValues>
            -3.3623132109642029e-001 2.6014733314514160e-001</leafValues></_>
        <_>
          <internalNodes>
            0 -1 23 -285225217 -537698507 -1116777352 2105506619
            -429437760 1280723264 1278431296 2004842359</internalNodes>
          <leafValues>
            -2.9858800768852234e-001 2.7276581525802612e-001</leafValues></_>
        <_>
          <internalNodes>
            0 -1 70 250642428 534568957 -1610809347 -1646399489
            1853172981 1308459004 1736261623 1073688567</internalNodes>
          <leafValues>
            -4.2023110389709473e-001 2.1087025105953217e-001</leafValues></_>
        <_>
          <internalNodes>
            0 -1 111 -177496668 -1332175867 -541329475 -1850482905
            -156323905 -1078067783 -291123320 -1950643445</internalNodes>
          <leafValues>
            -2.6138541102409363e-001 3.1007081270217896e-001</leafValues></_>
        <_>
          <internalNodes>
            0 -1 132 -878006388 -657790216 -275513464 -205986632
            -608716120 -1599377495 -273969656 -2121546616</internalNodes>
          <leafValues>
            -3.6131346225738525e-001 2.1808004379272461e-001</leafValues></_>
        <_>
          <internalNodes>
            0 -1 73 1034960885 -1073955843 -1073889281 -1074167812
            -1074163715 -2246402 -1073954817 -1074839555</internalNodes>
          <leafValues>
            -2.2814011573791504e-001 3.4302455186843872e-001</leafValues></_>
        <_>
          <internalNodes>
            0 -1 83 1750090820 -33588233 -35979521 -1088429057
            2046714960 -81674 -116740 -1079897822</internalNodes>
          <leafValues>
            -3.2066208124160767e-001 2.3209825158119202e-001</leafValues></_>
        <_>
          <internalNodes>
            0 -1 61 -269590930 -293699717 -25231838 -298920206
            -432580095 2003204439 -378032317 -81594505</internalNodes>
          <leafValues>
            -3.8320410251617432e-001 1.9246117770671844e-001</leafValues></_>
        <_>
          <internalNodes>
            0 -1 123 -536854 -2142634 302181118 -1304286466 1635174468
            1864882244 -222628612 -10751025</internalNodes>
          <leafValues>
            -2.2378121316432953e-001 3.2449048757553101e-001</leafValues></_>
        <_>
          <internalNodes>
            0 -1 86 990526248 1798045677 -1073768452 1876291573
            -80479494 -311427201 457293434 -2007105537</internalNodes>
          <leafValues>
            -3.8519310951232910e-001 1.9457596540451050e-001</leafValues></_>
        <_>
          <internalNodes>
            0 -1 104 -33947664 -1834558923 -281731147 -1242235652
            -71303175 -1405289537 -4325505 213450643</internalNodes>
          <leafValues>
            -3.1529542803764343e-001 2.3383215069770813e-001</leafValues></_>
        <_>
          <internalNodes>
            0 -1 96 -995704944 -168402955 -12632067 -1623195908
            -1969059905 -268448513 -2120204867 -1392566993</internalNodes>
          <leafValues>
            -2.5933223962783813e-001 2.8558841347694397e-001</leafValues></_>
        <_>
          <internalNodes>
            0 -1 56 -1947206006 42400686 -1468622166 548037290
            1156990018 1107582470 -778111290 1634990923</internalNodes>
          <leafValues>
            -4.2013964056968689e-001 1.8081571161746979e-001</leafValues></_>
        <_>
          <internalNodes>
            0 -1 65 1483788482 1375401951 -270338 1500180430 1442072053
            1425989293 -698881 2118137324</internalNodes>
          <leafValues>
            -4.8132666945457458e-001 1.3160924613475800e-001</leafValues></_>
        <_>
          <internalNodes>
            0 -1 37 2142937018 -1073771014 330381299 -826274663
            794278651 712589309 -1149283670 -2066327526</internalNodes>
          <leafValues>
            -3.5881069302558899e-001 1.9432808458805084e-001</leafValues></_>
        <_>
          <internalNodes>
            0 -1 122 -287621994 -117494353 278827475 -2135612269
            -90820990 -1074332833 -425136253 -1039732825</internalNodes>
          <leafValues>
            -3.2070443034172058e-001 2.1856205165386200e-001</leafValues></_>
        <_>
          <internalNodes>
            0 -1 134 -4248032 -260446301 -1426129223 -1318993111
            -4250364 -547898880 -801255805 -247204665</internalNodes>
          <leafValues>
            -3.0572167038917542e-001 2.3188002407550812e-001</leafValues></_>
        <_>
          <internalNodes>
            0 -1 41 -135279446 346222150 1618650114 1912121559 -51462144
            1409611264 -523992860 1892935579</internalNodes>
          <leafValues>
            -3.4574577212333679e-001 2.0668312907218933e-001</leafValues></_>
        <_>
          <internalNodes>
            0 -1 80 1043349468 805076957 998014839 -180739 -1158369284
            -150532 -1409761281 1073483388</internalNodes>
          <leafValues>
            -4.4563078880310059e-001 1.5153974294662476e-001</leafValues></_>
        <_>
          <internalNodes>
            0 -1 31 -151040353 -757605445 -1065577770 -2107982085
            -630765050 -562595522 -1100036508 51052343</internalNodes>
          <leafValues>
            -4.1715890169143677e-001 1.4897468686103821e-001</leafValues></_>
        <_>
          <internalNodes>
            0 -1 4 -35922110 -1849822216 805293396 368819740 -1346650122
            632340412 -827838804 7113422</internalNodes>
          <leafValues>
            -4.3015635013580322e-001 1.4644613862037659e-001</leafValues></_>
        <_>
          <internalNodes>
            0 -1 8 -1208365723 2147236847 -1090667521 763203567
            -19428937 -991975049 -69398603 -1728373705</internalNodes>
          <leafValues>
            -2.4358209967613220e-001 2.8413251042366028e-001</leafValues></_>
        <_>
          <internalNodes>
            0 -1 137 -33559086 -989992642 -92278828 -462160419 -69214317
            1222594166 -1097075056 -1069678919</internalNodes>
          <leafValues>
            -3.2587346434593201e-001 1.9636358320713043e-001</leafValues></_>
        <_>
          <internalNodes>
            0 -1 11 -1231822194 107931266 -1057706362 871549359
            1207874204 1685784412 -703531984 -230559162</internalNodes>
          <leafValues>
            -2.9360410571098328e-001 2.2475852072238922e-001</leafValues></_></weakClassifiers></_></stages>
  <features>
    <_>
      <rect>
        0 0 2 2</rect></_>
    <_>
      <rect>
        0 0 2 6</rect></_>
    <_>
      <rect>
        0 0 3 5</rect></_>
    <_>
      <rect>
        0 0 5 6</rect></_>
    <_>
      <rect>
        0 0 6 2</rect></_>
    <_>
      <rect>
        0 0 6 3</rect></_>
    <_>
      <rect>
        0 1 2 1</rect></_>
    <_>
      <rect>
        0 1 4 5</rect></_>
    <_>
      <rect>
        0 1 5 6</rect></_>
    <_>
      <rect>
        0 3 1 1</rect></_>
    <_>
      <rect>
        0 3 1 2</rect></_>
    <_>
      <rect>
        0 4 1 2</rect></_>
    <_>
      <rect>
        0 4 6 4</rect></_>
    <_>
      <rect>
        0 5 3 3</rect></_>
    <_>
      <rect>
        0 5 3 4</rect></_>
    <_>
      <rect>
        0 5 3 5</rect></_>
    <_>
      <rect>
        0 5 5 5</rect></_>
    <_>
      <rect>
        0 6 2 4</rect></_>
    <_>
      <rect>
        0 6 3 3</rect></_>
    <_>
      <rect>
        0 7 4 4</rect></_>
    <_>
      <rect>
        0 8 1 4</rect></_>
    <_>
      <rect>
        0 8 6 4</rect></_>
    <_>
      <rect>
        0 9 1 1</rect></_>
    <_>
      <rect>
        0 10 1 3</rect></_>
    <_>
      <rect>
        0 11 1 1</rect></_>
    <_>
      <rect>
        0 11 3 3</rect></_>
    <_>
      <rect>
        0 13 1 1</rect></_>
    <_>
      <rect>
        0 14 1 1</rect></_>
    <_>
      <rect>
        0 14 1 2</rect></_>
    <_>
      <rect>
        0 14 5 2</rect></_>
    <_>
      <rect>
        0 15 1 1</rect></_>
    <_>
      <rect>
        0 16 1 1</rect></_>
    <_>
      <rect>
        0 16 3 1</rect></_>
    <_>
      <rect>
        0 17 1 1</rect></_>
    <_>
      <rect>
        0 17 2 1</rect></_>
    <_>
      <rect>
        0 17 3 1</rect></_>
    <_>
      <rect>
        0 17 4 1</rect></_>
    <_>
      <rect>
        1 0 3 5</rect></_>
    <_>
      <rect>
        1 2 3 6</rect></_>
    <_>
      <rect>
        1 3 1 1</rect></_>
    <_>
      <rect>
        1 4 6 5</rect></_>
    <_>
      <rect>
        1 5 1 1</rect></_>
    <_>
      <rect>
        1 8 6 4</rect></_>
    <_>
      <rect>
        1 9 1 1</rect></_>
    <_>
      <rect>
        1 9 5 3</rect></_>
    <_>
      <rect>
        1 10 4 1</rect></_>
    <_>
      <rect>
        1 13 1 2</rect></_>
    <_>
      <rect>
        1 15 1 1</rect></_>
    <_>
      <rect>
        1 16 1 1</rect></_>
    <_>
      <rect>
        1 17 4 1</rect></_>
    <_>
      <rect>
        1 17 6 1</rect></_>
    <_>
      <rect>
        2 0 6 2</rect></_>
    <_>
      <rect>
        2 0 6 4</rect></_>
    <_>
      <rect>
        2 1 3 2</rect></_>
    <_>
      <rect>
        2 1 4 6</rect></_>
    <_>
      <rect>
        2 2 6 6</rect></_>
    <_>
      <rect>
        2 3 1 1</rect></_>
    <_>
      <rect>
        2 3 6 5</rect></_>
    <_>
      <rect>
        2 4 1 1</rect></_>
    <_>
      <rect>
        2 5 1 1</rect></_>
    <_>
      <rect>
        2 11 6 3</rect></_>
    <_>
      <rect>
        2 15 1 1</rect></_>
    <_>
      <rect>
        2 17 1 1</rect></_>
    <_>
      <rect>
        3 8 2 2</rect></_>
    <_>
      <rect>
        4 4 5 5</rect></_>
    <_>
      <rect>
        4 10 3 3</rect></_>
    <_>
      <rect>
        4 11 5 3</rect></_>
    <_>
      <rect>
        5 0 4 1</rect></_>
    <_>
      <rect>
        5 0 5 3</rect></_>
    <_>
      <rect>
        5 1 2 1</rect></_>
    <_>
      <rect>
        5 4 2 2</rect></_>
    <_>
      <rect>
        5 7 5 4</rect></_>
    <_>
      <rect>
        5 17 5 1</rect></_>
    <_>
      <rect>
        6 0 1 1</rect></_>
    <_>
      <rect>
        6 0 2 2</rect></_>
    <_>
      <rect>
        6 0 4 2</rect></_>
    <_>
      <rect>
        6 5 2 2</rect></_>
    <_>
      <rect>
        6 14 4 2</rect></_>
    <_>
      <rect>
        6 15 2 1</rect></_>
    <_>
      <rect>
        7 0 1 1</rect></_>
    <_>
      <rect>
        7 1 1 1</rect></_>
    <_>
      <rect>
        7 2 1 1</rect></_>
    <_>
      <rect>
        7 8 1 1</rect></_>
    <_>
      <rect>
        7 12 1 1</rect></_>
    <_>
      <rect>
        8 0 4 3</rect></_>
    <_>
      <rect>
        8 0 4 4</rect></_>
    <_>
      <rect>
        8 7 4 4</rect></_>
    <_>
      <rect>
        8 11 2 3</rect></_>
    <_>
      <rect>
        8 13 3 2</rect></_>
    <_>
      <rect>
        8 14 2 1</rect></_>
    <_>
      <rect>
        8 15 4 1</rect></_>
    <_>
      <rect>
        9 8 2 2</rect></_>
    <_>
      <rect>
        9 9 1 1</rect></_>
    <_>
      <rect>
        9 13 3 2</rect></_>
    <_>
      <rect>
        9 14 2 1</rect></_>
    <_>
      <rect>
        9 14 2 2</rect></_>
    <_>
      <rect>
        9 15 2 1</rect></_>
    <_>
      <rect>
        9 17 1 1</rect></_>
    <_>
      <rect>
        9 17 2 1</rect></_>
    <_>
      <rect>
        10 8 2 2</rect></_>
    <_>
      <rect>
        10 8 3 1</rect></_>
    <_>
      <rect>
        10 9 3 1</rect></_>
    <_>
      <rect>
        10 12 2 2</rect></_>
    <_>
      <rect>
        10 14 1 1</rect></_>
    <_>
      <rect>
        10 16 3 1</rect></_>
    <_>
      <rect>
        11 3 3 3</rect></_>
    <_>
      <rect>
        11 4 3 4</rect></_>
    <_>
      <rect>
        11 8 2 2</rect></_>
    <_>
      <rect>
        11 8 3 1</rect></_>
    <_>
      <rect>
        11 11 3 2</rect></_>
    <_>
      <rect>
        11 14 1 2</rect></_>
    <_>
      <rect>
        11 14 2 1</rect></_>
    <_>
      <rect>
        11 15 1 1</rect></_>
    <_>
      <rect>
        11 15 2 1</rect></_>
    <_>
      <rect>
        11 16 1 1</rect></_>
    <_>
      <rect>
        11 17 3 1</rect></_>
    <_>
      <rect>
        12 17 1 1</rect></_>
    <_>
      <rect>
        13 0 2 5</rect></_>
    <_>
      <rect>
        13 4 1 1</rect></_>
    <_>
      <rect>
        13 6 2 2</rect></_>
    <_>
      <rect>
        13 17 1 1</rect></_>
    <_>
      <rect>
        13 17 2 1</rect></_>
    <_>
      <rect>
        14 3 2 3</rect></_>
    <_>
      <rect>
        14 4 1 1</rect></_>
    <_>
      <rect>
        14 7 2 4</rect></_>
    <_>
      <rect>
        14 10 2 3</rect></_>
    <_>
      <rect>
        14 11 1 1</rect></_>
    <_>
      <rect>
        14 11 2 1</rect></_>
    <_>
      <rect>
        14 11 2 3</rect></_>
    <_>
      <rect>
        14 17 2 1</rect></_>
    <_>
      <rect>
        15 11 1 1</rect></_>
    <_>
      <rect>
        15 12 1 1</rect></_>
    <_>
      <rect>
        15 13 1 1</rect></_>
    <_>
      <rect>
        16 0 1 1</rect></_>
    <_>
      <rect>
        16 10 1 1</rect></_>
    <_>
      <rect>
        16 11 1 1</rect></_>
    <_>
      <rect>
        16 12 1 1</rect></_>
    <_>
      <rect>
        16 15 1 1</rect></_>
    <_>
      <rect>
        16 17 1 1</rect></_>
    <_>
      <rect>
        17 0 1 1</rect></_>
    <_>
      <rect>
        17 8 1 1</rect></_>
    <_>
      <rect>
        17 9 1 1</rect></_>
    <_>
      <rect>
        17 10 1 1</rect></_>
    <_>
      <rect>
        17 11 1 1</rect></_>
    <_>
      <rect>
        17 13 1 1</rect></_>
    <_>
      <rect>
        17 14 1 1</rect></_>
    <_>
      <rect>
        17 15 1 1</rect></_>
    <_>
      <rect>
        17 16 1 1</rect></_>
    <_>
      <rect>
        17 17 1 1</rect></_></features></cascade>
</opencv_storage>
